{
  "type": "LSTM",
  "options": {
    "inputSize": 31,
    "inputRange": 31,
    "hiddenLayers": [20, 20],
    "outputSize": 31,
    "learningRate": 0.01,
    "decayRate": 0.999,
    "smoothEps": 1e-8,
    "regc": 0.000001,
    "clipval": 5,
    "maxPredictionLength": 100,
    "dataFormatter": {
      "specialIndexes": [28, 29, 30],
      "values": [
        "buy me a laptop",
        "code",
        "computer",
        "drive",
        "hardware",
        "i broke my pc",
        "i found some bugs in the code",
        "i love computers",
        "i love to play games",
        "i need a new power supply",
        "i swapped the memory",
        "i tested the code",
        "it needs more memory",
        "my unit test failed",
        "power supply",
        "program",
        "programming",
        "software",
        "the drive has a 2TB capacity",
        "tried the program, but it was buggy",
        "unit-tests"
      ],
      "indexTable": {
        "2": 23,
        "b": 0,
        "u": 1,
        "y": 2,
        " ": 3,
        "m": 4,
        "e": 5,
        "a": 6,
        "l": 7,
        "p": 8,
        "t": 9,
        "o": 10,
        "c": 11,
        "d": 12,
        "r": 13,
        "i": 14,
        "v": 15,
        "h": 16,
        "w": 17,
        "k": 18,
        "f": 19,
        "n": 20,
        "s": 21,
        "g": 22,
        "T": 24,
        "B": 25,
        ",": 26,
        "-": 27,
        "stop-input": 28,
        "start-output": 29,
        "unrecognized": 30
      },
      "characterTable": {
        "0": "b",
        "1": "u",
        "2": "y",
        "3": " ",
        "4": "m",
        "5": "e",
        "6": "a",
        "7": "l",
        "8": "p",
        "9": "t",
        "10": "o",
        "11": "c",
        "12": "d",
        "13": "r",
        "14": "i",
        "15": "v",
        "16": "h",
        "17": "w",
        "18": "k",
        "19": "f",
        "20": "n",
        "21": "s",
        "22": "g",
        "23": "2",
        "24": "T",
        "25": "B",
        "26": ",",
        "27": "-",
        "28": null,
        "29": null,
        "30": null
      },
      "characters": [
        "b",
        "u",
        "y",
        " ",
        "m",
        "e",
        "a",
        "l",
        "p",
        "t",
        "o",
        "c",
        "d",
        "r",
        "i",
        "v",
        "h",
        "w",
        "k",
        "f",
        "n",
        "s",
        "g",
        "2",
        "T",
        "B",
        ",",
        "-",
        "stop-input",
        "start-output",
        "unrecognized"
      ]
    }
  },
  "input": {
    "rows": 32,
    "columns": 31,
    "weights": {
      "0": -4.983515739440918,
      "1": 1.5013115406036377,
      "2": -1.2963138818740845,
      "3": 3.554257392883301,
      "4": 2.5552375316619873,
      "5": -2.4886603355407715,
      "6": -0.24974407255649567,
      "7": 0.9463202953338623,
      "8": 1.6940207481384277,
      "9": -2.5135366916656494,
      "10": 0.08196678757667542,
      "11": 0.8265641331672668,
      "12": 0.8467487692832947,
      "13": -1.8824386596679688,
      "14": -0.5185879468917847,
      "15": -0.8427836298942566,
      "16": -0.02693060226738453,
      "17": -0.5809359550476074,
      "18": 0.059133123606443405,
      "19": -0.07259465754032135,
      "20": 0.35048389434814453,
      "21": 0.16106170415878296,
      "22": -1.852381944656372,
      "23": -0.867618203163147,
      "24": -0.3421187996864319,
      "25": -0.16713771224021912,
      "26": -1.3786890506744385,
      "27": -0.18162226676940918,
      "28": -1.2716838121414185,
      "29": 0.030828392133116722,
      "30": 0.7810673713684082,
      "31": 3.605149984359741,
      "32": 2.9627280235290527,
      "33": 1.8379478454589844,
      "34": 0.02693854458630085,
      "35": -1.9798623323440552,
      "36": 2.903794288635254,
      "37": -4.73250150680542,
      "38": -4.724485874176025,
      "39": -1.2178030014038086,
      "40": -0.9189635515213013,
      "41": 0.6341952681541443,
      "42": -7.713000774383545,
      "43": 2.8618569374084473,
      "44": 3.5216503143310547,
      "45": -5.574066162109375,
      "46": -1.007368564605713,
      "47": 1.3296067714691162,
      "48": -1.1937775611877441,
      "49": -0.9349625110626221,
      "50": 2.0363287925720215,
      "51": 3.788968086242676,
      "52": -1.9091769456863403,
      "53": 1.5026911497116089,
      "54": -2.2801015377044678,
      "55": 6.854862213134766,
      "56": -3.303115129470825,
      "57": 7.6106858253479,
      "58": -3.0003535747528076,
      "59": 1.229313850402832,
      "60": 0.5437256693840027,
      "61": -1.2820602655410767,
      "62": 0.8402963280677795,
      "63": -0.5464170575141907,
      "64": -2.4302330017089844,
      "65": -1.9564305543899536,
      "66": 0.6100059747695923,
      "67": 2.199856996536255,
      "68": -0.2515871226787567,
      "69": 0.0017703162739053369,
      "70": -2.9082224369049072,
      "71": 2.640949249267578,
      "72": -0.271871954202652,
      "73": -3.2056589126586914,
      "74": -0.9807317852973938,
      "75": -5.9655375480651855,
      "76": 3.533322811126709,
      "77": -0.7152000665664673,
      "78": 0.6176326870918274,
      "79": 3.365629196166992,
      "80": -0.017669793218374252,
      "81": -1.2286944389343262,
      "82": 5.5895514488220215,
      "83": 3.9960923194885254,
      "84": 0.44332730770111084,
      "85": -0.460219144821167,
      "86": -4.360739231109619,
      "87": 0.20242711901664734,
      "88": -1.1850756406784058,
      "89": 2.9829444885253906,
      "90": -0.954701840877533,
      "91": -0.198399618268013,
      "92": 1.5413668155670166,
      "93": -2.5387442111968994,
      "94": 0.4097457528114319,
      "95": 2.105787515640259,
      "96": 3.450145721435547,
      "97": 1.86552894115448,
      "98": -3.8139472007751465,
      "99": 1.1070058345794678,
      "100": -1.8031927347183228,
      "101": -0.3906278908252716,
      "102": 0.4379561245441437,
      "103": -3.275785207748413,
      "104": 1.2351689338684082,
      "105": 2.446894884109497,
      "106": -0.5802180171012878,
      "107": 0.01832888461649418,
      "108": 0.3719346523284912,
      "109": 1.7078027725219727,
      "110": -2.494173049926758,
      "111": 0.9470985531806946,
      "112": 2.6030683517456055,
      "113": -0.886999249458313,
      "114": -3.992002487182617,
      "115": -2.0654149055480957,
      "116": 3.138026475906372,
      "117": 0.027668245136737823,
      "118": 0.7765870690345764,
      "119": 1.6634716987609863,
      "120": -0.43203112483024597,
      "121": 1.2833176851272583,
      "122": -1.8119721412658691,
      "123": -3.48161244392395,
      "124": -0.6402254700660706,
      "125": 0.18619656562805176,
      "126": 0.21757742762565613,
      "127": 3.9803903102874756,
      "128": 0.6079608201980591,
      "129": -0.6989967823028564,
      "130": 0.33848822116851807,
      "131": -0.12608346343040466,
      "132": -0.39371904730796814,
      "133": -0.11909371614456177,
      "134": 2.1907856464385986,
      "135": -0.44603797793388367,
      "136": 1.3770450353622437,
      "137": -2.803823471069336,
      "138": 1.4859819412231445,
      "139": 0.07335654646158218,
      "140": 2.8394157886505127,
      "141": 0.7184897661209106,
      "142": -2.314265251159668,
      "143": 1.6579360961914062,
      "144": 0.13877174258232117,
      "145": -1.105045199394226,
      "146": 0.29604843258857727,
      "147": -0.7385807037353516,
      "148": -1.4470131397247314,
      "149": 0.3994653522968292,
      "150": -1.389989972114563,
      "151": 2.5508437156677246,
      "152": 2.0580594539642334,
      "153": 0.2027396261692047,
      "154": -3.6008987426757812,
      "155": -3.0221903324127197,
      "156": 0.37690362334251404,
      "157": 0.056185536086559296,
      "158": 0.8801515698432922,
      "159": 2.7132985591888428,
      "160": -1.2497663497924805,
      "161": 5.739438533782959,
      "162": -0.19319353997707367,
      "163": -5.608003616333008,
      "164": -3.045914888381958,
      "165": -1.7733538150787354,
      "166": 2.0211472511291504,
      "167": 0.4617806077003479,
      "168": -1.4439338445663452,
      "169": 3.7621521949768066,
      "170": 0.06675340235233307,
      "171": 1.3948310613632202,
      "172": 1.167288064956665,
      "173": 2.647892951965332,
      "174": 0.08221516758203506,
      "175": -0.815619707107544,
      "176": -0.6861351728439331,
      "177": -0.7818590402603149,
      "178": 1.5864284038543701,
      "179": -0.5218668580055237,
      "180": 0.807011604309082,
      "181": -5.377093315124512,
      "182": 2.2165064811706543,
      "183": -2.2964494228363037,
      "184": -2.700106620788574,
      "185": -0.6238312721252441,
      "186": -0.8076714277267456,
      "187": -0.5768338441848755,
      "188": 0.35660773515701294,
      "189": 0.1409662514925003,
      "190": -0.39333009719848633,
      "191": 0.1313927173614502,
      "192": -1.747448205947876,
      "193": -0.008703798055648804,
      "194": 1.2899984121322632,
      "195": 0.4421612620353699,
      "196": -1.1798884868621826,
      "197": -0.9761865139007568,
      "198": 1.6134722232818604,
      "199": 0.3861373960971832,
      "200": -2.242997884750366,
      "201": -0.9413566589355469,
      "202": 1.0506796836853027,
      "203": -1.4985783100128174,
      "204": 0.08846863359212875,
      "205": -0.14865386486053467,
      "206": -0.2444898933172226,
      "207": 0.46491140127182007,
      "208": -0.6141611933708191,
      "209": 0.43212828040122986,
      "210": 0.3502887487411499,
      "211": 0.3854203522205353,
      "212": 1.0223280191421509,
      "213": -0.9920961856842041,
      "214": 1.0255520343780518,
      "215": 0.03357521817088127,
      "216": 0.5480579733848572,
      "217": -3.084216594696045,
      "218": -0.6698020100593567,
      "219": -1.821799874305725,
      "220": 0.6167898774147034,
      "221": -1.0899739265441895,
      "222": -1.6785407066345215,
      "223": 3.017678737640381,
      "224": -0.7270337343215942,
      "225": -3.3420701026916504,
      "226": -0.7584013342857361,
      "227": -0.7593677043914795,
      "228": 1.647495985031128,
      "229": 0.7474344372749329,
      "230": -2.436835765838623,
      "231": 2.624652147293091,
      "232": -1.025322675704956,
      "233": 1.3342465162277222,
      "234": 1.4939448833465576,
      "235": 0.7778155207633972,
      "236": 0.6711339354515076,
      "237": 2.2464935779571533,
      "238": -1.7093207836151123,
      "239": 2.4986915588378906,
      "240": -0.6812642216682434,
      "241": 0.7529988884925842,
      "242": -0.4779164493083954,
      "243": -1.717124581336975,
      "244": 1.2033382654190063,
      "245": 0.21055254340171814,
      "246": -0.8335455656051636,
      "247": -1.4881244897842407,
      "248": -3.399672508239746,
      "249": -5.667242527008057,
      "250": 3.843381643295288,
      "251": -1.7414977550506592,
      "252": 0.13877472281455994,
      "253": 0.5036287903785706,
      "254": 1.3475713729858398,
      "255": 1.0761433839797974,
      "256": 1.0386935472488403,
      "257": -2.167314052581787,
      "258": -2.829681873321533,
      "259": 0.7267781496047974,
      "260": -3.6006479263305664,
      "261": 2.665971517562866,
      "262": 2.6591246128082275,
      "263": 4.748303413391113,
      "264": -8.195075988769531,
      "265": -2.9353036880493164,
      "266": 2.251918315887451,
      "267": 0.4615465998649597,
      "268": -2.4672276973724365,
      "269": 0.34341925382614136,
      "270": -3.0331051349639893,
      "271": 5.08135461807251,
      "272": -1.0500602722167969,
      "273": 6.113826751708984,
      "274": 1.4445027112960815,
      "275": -4.884214878082275,
      "276": -1.4861295223236084,
      "277": 2.9598264694213867,
      "278": 1.6721259355545044,
      "279": 1.8504698276519775,
      "280": 0.12622302770614624,
      "281": 0.03661584481596947,
      "282": -1.5157805681228638,
      "283": -2.786456346511841,
      "284": 2.3228983879089355,
      "285": -1.0331687927246094,
      "286": 1.6917496919631958,
      "287": -0.5630518794059753,
      "288": -0.24060633778572083,
      "289": 3.416985273361206,
      "290": 0.5150188207626343,
      "291": -0.8867613077163696,
      "292": -0.48860305547714233,
      "293": -1.1085317134857178,
      "294": 1.6887058019638062,
      "295": 0.42560628056526184,
      "296": 2.020275831222534,
      "297": 0.436551958322525,
      "298": -1.2964048385620117,
      "299": 3.3414182662963867,
      "300": 0.25058403611183167,
      "301": 3.1277217864990234,
      "302": -4.3461432456970215,
      "303": 1.8910702466964722,
      "304": 0.03327695652842522,
      "305": -2.6648576259613037,
      "306": 2.028438091278076,
      "307": -1.8639410734176636,
      "308": 2.2773776054382324,
      "309": 0.693581223487854,
      "310": 0.7190752625465393,
      "311": 0.4134950637817383,
      "312": 0.2451454997062683,
      "313": 0.19161978363990784,
      "314": -0.8898175358772278,
      "315": -0.346325159072876,
      "316": -2.6571543216705322,
      "317": 1.2862815856933594,
      "318": 2.7824158668518066,
      "319": -0.5770918726921082,
      "320": 1.687339425086975,
      "321": -1.821953296661377,
      "322": -0.5056091547012329,
      "323": -1.0681778192520142,
      "324": -1.0612905025482178,
      "325": -1.711870551109314,
      "326": -0.2013416439294815,
      "327": 0.6636834144592285,
      "328": -2.103800058364868,
      "329": -0.6102238893508911,
      "330": 0.7850684523582458,
      "331": 1.7459816932678223,
      "332": 1.1753512620925903,
      "333": 1.0895415544509888,
      "334": -0.6286000609397888,
      "335": -0.17569051682949066,
      "336": 1.4074469804763794,
      "337": -0.9952465891838074,
      "338": -1.2694100141525269,
      "339": 1.0383520126342773,
      "340": 0.2590695321559906,
      "341": 0.5872843861579895,
      "342": -0.24838927388191223,
      "343": -1.690209984779358,
      "344": -1.0286604166030884,
      "345": -0.08192186802625656,
      "346": 0.29464659094810486,
      "347": 2.078303813934326,
      "348": -1.0097169876098633,
      "349": -1.6021243333816528,
      "350": 0.0012169386027380824,
      "351": -0.11270663142204285,
      "352": -0.42656391859054565,
      "353": 1.4961704015731812,
      "354": -0.3659655749797821,
      "355": 0.30703142285346985,
      "356": -2.64855694770813,
      "357": 2.1572487354278564,
      "358": 0.4022792875766754,
      "359": -0.6992892026901245,
      "360": 1.570793628692627,
      "361": 0.9773417711257935,
      "362": -1.6605663299560547,
      "363": 1.2088543176651,
      "364": -1.4128860235214233,
      "365": 1.6098499298095703,
      "366": -3.3091094493865967,
      "367": -0.18387427926063538,
      "368": -0.1115124300122261,
      "369": 0.14472706615924835,
      "370": -0.7840482592582703,
      "371": 0.4686034321784973,
      "372": -1.7529393434524536,
      "373": -0.12591418623924255,
      "374": 2.3182153701782227,
      "375": -2.462013006210327,
      "376": -4.369531154632568,
      "377": -2.4754559993743896,
      "378": -1.0949077606201172,
      "379": 0.6052091717720032,
      "380": 0.43075618147850037,
      "381": -4.334773540496826,
      "382": -4.552504539489746,
      "383": 0.5649017691612244,
      "384": -4.787458896636963,
      "385": 3.5534555912017822,
      "386": 2.292479991912842,
      "387": 3.3225018978118896,
      "388": -8.225083351135254,
      "389": 0.2385624349117279,
      "390": 4.367559432983398,
      "391": -0.5566670298576355,
      "392": -4.024397373199463,
      "393": 4.646579742431641,
      "394": -1.0720677375793457,
      "395": 2.816239595413208,
      "396": -0.6258111000061035,
      "397": 2.7243378162384033,
      "398": 1.9173132181167603,
      "399": -1.2496521472930908,
      "400": -1.0892912149429321,
      "401": 0.7510372400283813,
      "402": 0.8858490586280823,
      "403": 2.1331849098205566,
      "404": 2.7154958248138428,
      "405": 1.9624642133712769,
      "406": 0.7088649868965149,
      "407": 2.6751723289489746,
      "408": -1.5953818559646606,
      "409": -0.46547016501426697,
      "410": -0.8432788848876953,
      "411": 0.5773106217384338,
      "412": -1.4635649919509888,
      "413": 5.207144737243652,
      "414": -2.9926161766052246,
      "415": -1.1056467294692993,
      "416": -2.204035997390747,
      "417": -2.6779630184173584,
      "418": -0.6796014308929443,
      "419": -0.8374911546707153,
      "420": -1.3975931406021118,
      "421": -1.8982781171798706,
      "422": 4.016124725341797,
      "423": 4.162446975708008,
      "424": -2.405130386352539,
      "425": -0.33485147356987,
      "426": 1.7580773830413818,
      "427": 0.6849823594093323,
      "428": -1.0728354454040527,
      "429": 2.7995736598968506,
      "430": -0.9663156270980835,
      "431": -1.3857125043869019,
      "432": -0.20397113263607025,
      "433": -1.5987913608551025,
      "434": 1.3927175998687744,
      "435": -0.010886790230870247,
      "436": -0.13247938454151154,
      "437": 0.11017566174268723,
      "438": 1.127646565437317,
      "439": -0.49070918560028076,
      "440": -0.197018101811409,
      "441": 0.057587139308452606,
      "442": 0.8259167671203613,
      "443": -0.13770069181919098,
      "444": -0.194032683968544,
      "445": -0.1797480285167694,
      "446": 1.3019394874572754,
      "447": -0.3998085558414459,
      "448": -2.237971305847168,
      "449": -0.48437148332595825,
      "450": 1.4363435506820679,
      "451": -0.06832341104745865,
      "452": -0.5358963012695312,
      "453": -0.24686068296432495,
      "454": -0.06681987643241882,
      "455": -0.16508060693740845,
      "456": -0.7889255285263062,
      "457": 1.496446967124939,
      "458": 0.6596235632896423,
      "459": -1.1713846921920776,
      "460": 2.4602439403533936,
      "461": -0.3502853214740753,
      "462": 0.8467186093330383,
      "463": -1.9486130475997925,
      "464": -1.3114120960235596,
      "465": -2.889732837677002,
      "466": -0.3452037572860718,
      "467": 1.373787760734558,
      "468": 2.6423604488372803,
      "469": -0.3204960525035858,
      "470": 1.528478741645813,
      "471": 0.9116377234458923,
      "472": -0.49174919724464417,
      "473": -0.06565223634243011,
      "474": 3.3362581729888916,
      "475": 1.3382835388183594,
      "476": 0.9393706917762756,
      "477": 2.1761252880096436,
      "478": 0.514073371887207,
      "479": 1.7899571657180786,
      "480": -3.811072826385498,
      "481": 1.6192306280136108,
      "482": -1.084571361541748,
      "483": -2.816525936126709,
      "484": 1.3481162786483765,
      "485": -0.6459502577781677,
      "486": -1.5839310884475708,
      "487": -3.2766354084014893,
      "488": -2.8278274536132812,
      "489": 0.5995940566062927,
      "490": -1.563278079032898,
      "491": -2.5882456302642822,
      "492": -0.6235622763633728,
      "493": -0.8027389049530029,
      "494": 1.1976711750030518,
      "495": 1.8743585348129272,
      "496": 4.272288799285889,
      "497": -2.6337947845458984,
      "498": -0.2500832974910736,
      "499": -1.8840891122817993,
      "500": -0.17539288103580475,
      "501": -1.1596211194992065,
      "502": -1.974584937095642,
      "503": -4.916459083557129,
      "504": -0.9661825895309448,
      "505": 1.7944670915603638,
      "506": 3.518523693084717,
      "507": -1.7092697620391846,
      "508": 5.59953498840332,
      "509": -1.4774367809295654,
      "510": 0.501229465007782,
      "511": -3.4215869903564453,
      "512": 2.7861170768737793,
      "513": -3.4483611583709717,
      "514": -3.5287516117095947,
      "515": 6.076355457305908,
      "516": 1.5993552207946777,
      "517": -2.4294862747192383,
      "518": -1.3733580112457275,
      "519": 5.136501312255859,
      "520": 5.1734395027160645,
      "521": -6.216207027435303,
      "522": 8.690515518188477,
      "523": -2.301619529724121,
      "524": 4.917783737182617,
      "525": 4.035159587860107,
      "526": 1.0623371601104736,
      "527": 1.4686614274978638,
      "528": -1.3134733438491821,
      "529": -0.31954264640808105,
      "530": 2.255066156387329,
      "531": 2.278019428253174,
      "532": 1.0787594318389893,
      "533": 2.8389394283294678,
      "534": -2.0505456924438477,
      "535": -0.2615440785884857,
      "536": -1.3207265138626099,
      "537": -0.038876693695783615,
      "538": 0.2746264934539795,
      "539": 2.2871956825256348,
      "540": 1.8909152746200562,
      "541": 0.42422059178352356,
      "542": -1.115568995475769,
      "543": 1.975969910621643,
      "544": 0.5952560901641846,
      "545": -1.0379701852798462,
      "546": 3.010936737060547,
      "547": -0.9846590757369995,
      "548": -3.5432522296905518,
      "549": 2.009732723236084,
      "550": 0.8581300973892212,
      "551": -0.8469228148460388,
      "552": -1.208277940750122,
      "553": 0.04406055435538292,
      "554": -3.025047779083252,
      "555": 1.479322910308838,
      "556": -1.2089295387268066,
      "557": -3.7037301063537598,
      "558": -0.06553385406732559,
      "559": 3.0028128623962402,
      "560": -1.342954397201538,
      "561": -2.038332939147949,
      "562": -0.6719369888305664,
      "563": 1.3954813480377197,
      "564": 0.8532961010932922,
      "565": 2.1437559127807617,
      "566": -1.793684720993042,
      "567": -0.419808030128479,
      "568": -2.057596445083618,
      "569": -0.44391754269599915,
      "570": -0.824502170085907,
      "571": -3.921135187149048,
      "572": 1.2903683185577393,
      "573": 0.8567999601364136,
      "574": 0.543961226940155,
      "575": 1.4544485807418823,
      "576": 1.009047508239746,
      "577": -3.2455780506134033,
      "578": 1.5946403741836548,
      "579": 2.922727108001709,
      "580": 0.5376472473144531,
      "581": -1.3422603607177734,
      "582": -0.1684153825044632,
      "583": 0.8498988151550293,
      "584": -1.751896619796753,
      "585": 3.1723601818084717,
      "586": -1.2939895391464233,
      "587": 0.35967665910720825,
      "588": 4.480208873748779,
      "589": 5.456121444702148,
      "590": -11.050018310546875,
      "591": 4.721814155578613,
      "592": -2.433619260787964,
      "593": -7.721094608306885,
      "594": 4.93137788772583,
      "595": -3.0383031368255615,
      "596": 4.521424770355225,
      "597": 4.594951629638672,
      "598": 10.594127655029297,
      "599": -1.6405364274978638,
      "600": -0.7593210935592651,
      "601": -9.302840232849121,
      "602": 6.761239051818848,
      "603": -2.801456928253174,
      "604": 7.301069259643555,
      "605": -8.244462013244629,
      "606": -0.03760513663291931,
      "607": 3.021167278289795,
      "608": -5.494790077209473,
      "609": -7.528657913208008,
      "610": 4.310091018676758,
      "611": -0.28786367177963257,
      "612": -0.38222357630729675,
      "613": -0.35496196150779724,
      "614": 5.590143203735352,
      "615": 8.728840827941895,
      "616": -3.179450273513794,
      "617": -2.4820897579193115,
      "618": 12.390945434570312,
      "619": 8.052841186523438,
      "620": -0.17619603872299194,
      "621": 0.5863242149353027,
      "622": 0.1866607666015625,
      "623": 1.3859063386917114,
      "624": -2.4510066509246826,
      "625": -1.061076045036316,
      "626": -2.3823740482330322,
      "627": -0.524385929107666,
      "628": 1.9588745832443237,
      "629": 2.9099507331848145,
      "630": 1.0972150564193726,
      "631": 0.0601591132581234,
      "632": -1.2640513181686401,
      "633": 1.9134867191314697,
      "634": -0.7992790937423706,
      "635": 0.22252105176448822,
      "636": -1.2343096733093262,
      "637": -2.922375440597534,
      "638": -0.3801388442516327,
      "639": -1.4372609853744507,
      "640": 1.0584763288497925,
      "641": -0.4071815609931946,
      "642": 0.6864827275276184,
      "643": 1.1041406393051147,
      "644": -0.4169110357761383,
      "645": 0.5649451613426208,
      "646": 4.663724422454834,
      "647": -2.6682610511779785,
      "648": -0.02400381490588188,
      "649": 0.9313830733299255,
      "650": 1.3722697496414185,
      "651": -3.1208741664886475,
      "652": -0.8615128993988037,
      "653": 6.632815361022949,
      "654": -2.985201358795166,
      "655": 6.336758136749268,
      "656": 2.8123703002929688,
      "657": 0.933417558670044,
      "658": -3.1144044399261475,
      "659": -1.2686645984649658,
      "660": 3.0095245838165283,
      "661": -1.6088098287582397,
      "662": -0.45960333943367004,
      "663": -0.7994102239608765,
      "664": 0.12719318270683289,
      "665": 0.366559237241745,
      "666": -2.0596354007720947,
      "667": 1.515472173690796,
      "668": -2.998110055923462,
      "669": 2.5418388843536377,
      "670": 3.846790075302124,
      "671": -2.229240894317627,
      "672": -3.273787260055542,
      "673": -5.963648796081543,
      "674": 3.9613218307495117,
      "675": 1.4420452117919922,
      "676": -0.07640589773654938,
      "677": -5.4305548667907715,
      "678": -0.420381635427475,
      "679": -2.7098095417022705,
      "680": -5.226665496826172,
      "681": -0.3898122012615204,
      "682": 2.751173257827759,
      "683": 0.5144422650337219,
      "684": 0.178883895277977,
      "685": 0.36038339138031006,
      "686": -2.09517240524292,
      "687": 0.5726355314254761,
      "688": 0.28798285126686096,
      "689": -2.3050804138183594,
      "690": -0.42383068799972534,
      "691": 1.4510339498519897,
      "692": 1.0871447324752808,
      "693": -0.8827071189880371,
      "694": 1.7279374599456787,
      "695": -0.7939133644104004,
      "696": -0.014602837152779102,
      "697": 1.0126312971115112,
      "698": -0.2776922881603241,
      "699": 0.10702001303434372,
      "700": 0.5773277282714844,
      "701": 3.227652072906494,
      "702": 0.5121327638626099,
      "703": -3.9951517581939697,
      "704": 1.774773359298706,
      "705": 0.09626664221286774,
      "706": 0.6201149821281433,
      "707": -0.5194234848022461,
      "708": 0.02791905403137207,
      "709": 0.17098602652549744,
      "710": 1.3235782384872437,
      "711": 2.907257080078125,
      "712": -1.1815862655639648,
      "713": 1.0021270513534546,
      "714": 1.931351900100708,
      "715": 2.903211832046509,
      "716": 0.5058521628379822,
      "717": -2.3177037239074707,
      "718": 0.0856168121099472,
      "719": 2.6406078338623047,
      "720": 0.3084203004837036,
      "721": 1.0731486082077026,
      "722": -0.8318572044372559,
      "723": 0.7434690594673157,
      "724": 0.19659562408924103,
      "725": 0.168524831533432,
      "726": 8.969487190246582,
      "727": -1.6724252700805664,
      "728": -0.9687067270278931,
      "729": -1.08024001121521,
      "730": -2.7325000762939453,
      "731": 1.3930256366729736,
      "732": -0.802128255367279,
      "733": -3.858928680419922,
      "734": 0.5504591464996338,
      "735": -2.059307336807251,
      "736": 6.448230743408203,
      "737": 3.9886856079101562,
      "738": 0.48026394844055176,
      "739": -0.016765063628554344,
      "740": -3.776188850402832,
      "741": -3.3575942516326904,
      "742": 1.8586146831512451,
      "743": 4.080310344696045,
      "744": 3.629211664199829,
      "745": -2.8760972023010254,
      "746": 14.323354721069336,
      "747": 3.344325304031372,
      "748": -3.948725461959839,
      "749": 0.05678694322705269,
      "750": 1.2616770267486572,
      "751": -15.719367027282715,
      "752": 1.1062687635421753,
      "753": 2.2334578037261963,
      "754": 10.23503589630127,
      "755": -6.2763447761535645,
      "756": 4.130594730377197,
      "757": -0.29284557700157166,
      "758": 3.7684097290039062,
      "759": -2.1439521312713623,
      "760": -12.3898344039917,
      "761": -9.535598754882812,
      "762": -3.8419082164764404,
      "763": 17.252559661865234,
      "764": 3.007953405380249,
      "765": -13.030916213989258,
      "766": -0.6671924591064453,
      "767": 11.217878341674805,
      "768": -0.727088451385498,
      "769": -2.3354265689849854,
      "770": 2.479877471923828,
      "771": -1.031481146812439,
      "772": 14.063971519470215,
      "773": -0.25623881816864014,
      "774": -7.186448574066162,
      "775": 1.958678960800171,
      "776": 16.92388916015625,
      "777": -1.3044514656066895,
      "778": 2.4518864154815674,
      "779": 12.018641471862793,
      "780": -2.114511489868164,
      "781": -6.436476230621338,
      "782": -2.034651517868042,
      "783": -6.693684101104736,
      "784": -7.5914411544799805,
      "785": -8.027274131774902,
      "786": 11.786748886108398,
      "787": 0.17230582237243652,
      "788": -1.70131516456604,
      "789": 1.292279601097107,
      "790": -1.1260125637054443,
      "791": 5.931239128112793,
      "792": 10.419858932495117,
      "793": 3.4280946254730225,
      "794": -2.480513572692871,
      "795": -9.911715507507324,
      "796": 6.539002895355225,
      "797": -1.0425974130630493,
      "798": 5.328918933868408,
      "799": 6.98164701461792,
      "800": -5.976085186004639,
      "801": -10.423145294189453,
      "802": 11.99770450592041,
      "803": 10.58875560760498,
      "804": -11.645840644836426,
      "805": -1.8371434211730957,
      "806": 11.725972175598145,
      "807": -0.4501805305480957,
      "808": -0.2562704384326935,
      "809": -4.359267234802246,
      "810": 13.178706169128418,
      "811": -7.70375394821167,
      "812": 10.110722541809082,
      "813": -2.3818371295928955,
      "814": -7.579049110412598,
      "815": -2.889861822128296,
      "816": -0.17067758738994598,
      "817": -2.0899932384490967,
      "818": 5.252547740936279,
      "819": -4.952553749084473,
      "820": 3.1954615116119385,
      "821": -4.772266864776611,
      "822": 5.673696994781494,
      "823": -2.4618585109710693,
      "824": -4.579977035522461,
      "825": 4.794689655303955,
      "826": 0.9672363996505737,
      "827": -9.770221710205078,
      "828": 5.820263862609863,
      "829": 13.000021934509277,
      "830": -1.017451524734497,
      "831": -5.228254318237305,
      "832": 8.952435493469238,
      "833": -10.034255981445312,
      "834": 15.093640327453613,
      "835": -12.428272247314453,
      "836": -6.212655544281006,
      "837": -2.034726142883301,
      "838": -8.024760246276855,
      "839": 4.971288204193115,
      "840": -3.384584665298462,
      "841": -10.270027160644531,
      "842": -4.994786262512207,
      "843": -10.595600128173828,
      "844": -1.346009612083435,
      "845": 9.8958740234375,
      "846": 7.327500820159912,
      "847": 3.705631732940674,
      "848": -1.76655113697052,
      "849": 0.9468621611595154,
      "850": 1.4548782110214233,
      "851": -2.5696656703948975,
      "852": -10.580735206604004,
      "853": 1.670630931854248,
      "854": -1.2283228635787964,
      "855": -12.230792999267578,
      "856": -5.8360795974731445,
      "857": -0.6476759910583496,
      "858": 4.572558879852295,
      "859": 4.9527130126953125,
      "860": -0.5759291052818298,
      "861": 4.4269819259643555,
      "862": -6.2248992919921875,
      "863": 4.466392517089844,
      "864": -10.054478645324707,
      "865": 3.1444382667541504,
      "866": -2.629833698272705,
      "867": 2.6507246494293213,
      "868": -6.094926834106445,
      "869": -9.819123268127441,
      "870": 5.856353759765625,
      "871": -7.974998950958252,
      "872": -1.1076050996780396,
      "873": 3.1546335220336914,
      "874": 10.02768611907959,
      "875": 1.7628203630447388,
      "876": 2.3243508338928223,
      "877": 7.199295997619629,
      "878": -9.813995361328125,
      "879": 7.052928447723389,
      "880": -6.065160751342773,
      "881": 10.233739852905273,
      "882": 0.46226251125335693,
      "883": 7.550628662109375,
      "884": 1.8306668996810913,
      "885": -0.20973633229732513,
      "886": 2.174196720123291,
      "887": -1.5874642133712769,
      "888": -5.65799617767334,
      "889": -1.4573756456375122,
      "890": -6.798715114593506,
      "891": -4.093595027923584,
      "892": 9.023489952087402,
      "893": 6.9683732986450195,
      "894": -4.913403511047363,
      "895": 0.9210939407348633,
      "896": -6.862179279327393,
      "897": 1.8929049968719482,
      "898": 10.175678253173828,
      "899": 0.16965803503990173,
      "900": -0.15255656838417053,
      "901": -1.796430230140686,
      "902": 2.1737616062164307,
      "903": -1.1268407106399536,
      "904": 0.6322587132453918,
      "905": -0.44543054699897766,
      "906": -0.26020699739456177,
      "907": 1.621645212173462,
      "908": -3.8121466636657715,
      "909": 2.029910087585449,
      "910": 0.09041257202625275,
      "911": -0.21671178936958313,
      "912": 0.5282931327819824,
      "913": -0.40686991810798645,
      "914": -0.978848397731781,
      "915": 1.3946267366409302,
      "916": 1.6620969772338867,
      "917": -1.9939846992492676,
      "918": -1.694627046585083,
      "919": 0.07910715788602829,
      "920": 0.0702165961265564,
      "921": 3.20497989654541,
      "922": -2.5210585594177246,
      "923": 1.444343090057373,
      "924": -1.1122901439666748,
      "925": -0.7782936692237854,
      "926": 0.6295285820960999,
      "927": -1.4386307001113892,
      "928": 2.968838930130005,
      "929": 0.18869417905807495,
      "930": -1.202268362045288,
      "931": -2.289705991744995,
      "932": -2.262301445007324,
      "933": 0.3212690055370331,
      "934": -1.330521583557129,
      "935": -0.5565952062606812,
      "936": 2.2651522159576416,
      "937": 1.3648395538330078,
      "938": -1.6898012161254883,
      "939": 1.026161789894104,
      "940": -0.3700949251651764,
      "941": 1.9751590490341187,
      "942": -0.9077376127243042,
      "943": 0.05241069942712784,
      "944": 0.9403645396232605,
      "945": 0.9196360111236572,
      "946": 0.5686474442481995,
      "947": 1.096333622932434,
      "948": 0.21845458447933197,
      "949": -2.58417010307312,
      "950": 0.4255799949169159,
      "951": 1.501853585243225,
      "952": 1.432126760482788,
      "953": -0.8386908769607544,
      "954": -2.3481762409210205,
      "955": 1.2604318857192993,
      "956": -0.6624130606651306,
      "957": 3.7445342540740967,
      "958": 0.4524044394493103,
      "959": 1.3164538145065308,
      "960": 3.492398977279663,
      "961": -0.017852896824479103,
      "962": -0.038179196417331696,
      "963": -0.06701129674911499,
      "964": 0.06040157377719879,
      "965": 0.005798942409455776,
      "966": -0.07114861905574799,
      "967": -0.06810426712036133,
      "968": 0.04655414819717407,
      "969": -0.019723402336239815,
      "970": -0.04213771969079971,
      "971": -0.06993283331394196,
      "972": -0.015337476506829262,
      "973": 0.012212822213768959,
      "974": 0.03089180961251259,
      "975": 0.018717100843787193,
      "976": -0.07065661996603012,
      "977": -0.00649230508133769,
      "978": -0.004228273872286081,
      "979": 0.04959861561655998,
      "980": -0.03715785965323448,
      "981": 0.05413132160902023,
      "982": 0.07311904430389404,
      "983": 0.02092139609158039,
      "984": 0.018525727093219757,
      "985": 0.026022927835583687,
      "986": -0.057969264686107635,
      "987": 0.07223174721002579,
      "988": -0.04588419198989868,
      "989": 0.0756981298327446,
      "990": -0.048116493970155716,
      "991": -0.04234783351421356
    }
  },
  "hiddenLayers": [
    {
      "inputMatrix": {
        "rows": 20,
        "columns": 31,
        "weights": {
          "0": 0.35998767614364624,
          "1": 0.14042852818965912,
          "2": -0.09086915105581284,
          "3": 0.9052820801734924,
          "4": 0.4211062490940094,
          "5": -0.6008210182189941,
          "6": -0.8699744343757629,
          "7": -1.0499294996261597,
          "8": 0.813291609287262,
          "9": -0.6267663836479187,
          "10": 0.8756197094917297,
          "11": -0.0809047520160675,
          "12": 1.343034267425537,
          "13": -1.8345664739608765,
          "14": -1.0375111103057861,
          "15": -2.0810306072235107,
          "16": 3.3263397216796875,
          "17": 0.481854110956192,
          "18": -1.4323469400405884,
          "19": 0.6613311767578125,
          "20": 1.1689661741256714,
          "21": -1.2315187454223633,
          "22": 0.975306510925293,
          "23": 0.09938458353281021,
          "24": 1.308136224746704,
          "25": -1.1806937456130981,
          "26": 0.13412532210350037,
          "27": 0.7183843851089478,
          "28": -0.7592016458511353,
          "29": -0.11892813444137573,
          "30": -0.9807103872299194,
          "31": 2.3627405166625977,
          "32": 0.9255616068840027,
          "33": 0.31463131308555603,
          "34": -0.27039384841918945,
          "35": -0.8028205037117004,
          "36": -0.9614490866661072,
          "37": -0.005392270628362894,
          "38": -1.4679710865020752,
          "39": 0.36672380566596985,
          "40": 2.3014979362487793,
          "41": 0.5387635231018066,
          "42": -1.6173158884048462,
          "43": 1.4256621599197388,
          "44": -1.0810645818710327,
          "45": -0.9969842433929443,
          "46": -1.0699536800384521,
          "47": 0.7716550827026367,
          "48": -0.6970371603965759,
          "49": -1.5013536214828491,
          "50": 1.166077971458435,
          "51": 0.2944805324077606,
          "52": 0.6672711372375488,
          "53": 2.0968880653381348,
          "54": 1.876534104347229,
          "55": -0.3255767226219177,
          "56": -0.7699411511421204,
          "57": 1.6959222555160522,
          "58": -0.7343541383743286,
          "59": 4.200877666473389,
          "60": -1.6659764051437378,
          "61": -1.1862860918045044,
          "62": 1.0465521812438965,
          "63": -1.5645267963409424,
          "64": 0.9059514403343201,
          "65": -1.4733874797821045,
          "66": -3.611098051071167,
          "67": 1.7434954643249512,
          "68": -2.4343371391296387,
          "69": 0.21593667566776276,
          "70": 1.472830891609192,
          "71": -0.11206231266260147,
          "72": 1.6608831882476807,
          "73": -2.334965705871582,
          "74": -1.118935465812683,
          "75": -0.1465187519788742,
          "76": -0.2901695668697357,
          "77": 2.9396233558654785,
          "78": -1.8077517747879028,
          "79": -0.5294557213783264,
          "80": 0.44590649008750916,
          "81": 0.20539607107639313,
          "82": 1.1539386510849,
          "83": 0.24925807118415833,
          "84": 0.1588025838136673,
          "85": 0.3261803090572357,
          "86": 1.359552025794983,
          "87": 2.2004892826080322,
          "88": 1.256215214729309,
          "89": 0.07917993515729904,
          "90": -0.004411020781844854,
          "91": 4.332691669464111,
          "92": 0.6511099934577942,
          "93": 0.45665138959884644,
          "94": -0.8446181416511536,
          "95": 0.3723406195640564,
          "96": 0.025317860767245293,
          "97": -1.3245551586151123,
          "98": -1.997505784034729,
          "99": -0.028781965374946594,
          "100": -0.734833300113678,
          "101": -0.8223478198051453,
          "102": 0.7970806956291199,
          "103": -0.15300601720809937,
          "104": -3.7281484603881836,
          "105": 1.4301594495773315,
          "106": -0.1099555492401123,
          "107": 0.572149395942688,
          "108": 0.30720770359039307,
          "109": 1.3138765096664429,
          "110": 0.989234209060669,
          "111": -1.0433341264724731,
          "112": 0.22123606503009796,
          "113": 1.9558912515640259,
          "114": -0.3060012757778168,
          "115": 1.4024070501327515,
          "116": 1.3798121213912964,
          "117": 0.07818802446126938,
          "118": 0.028000131249427795,
          "119": 3.0560076236724854,
          "120": -1.87200927734375,
          "121": 2.2198197841644287,
          "122": -0.4942060112953186,
          "123": -0.983568549156189,
          "124": -1.090190052986145,
          "125": -2.1219542026519775,
          "126": 0.5004547238349915,
          "127": -0.17667046189308167,
          "128": 1.6131209135055542,
          "129": -0.15653127431869507,
          "130": 0.46540653705596924,
          "131": -1.8344815969467163,
          "132": -0.46722501516342163,
          "133": -0.613558292388916,
          "134": -0.08880001306533813,
          "135": -0.3553290367126465,
          "136": 1.715467095375061,
          "137": -0.9830037951469421,
          "138": 0.7664765119552612,
          "139": -0.6888535618782043,
          "140": 0.7054616808891296,
          "141": -0.5840117335319519,
          "142": 0.7646245956420898,
          "143": 3.053753137588501,
          "144": 0.7618866562843323,
          "145": -2.6289141178131104,
          "146": -1.4307810068130493,
          "147": 0.8347361087799072,
          "148": 1.0181834697723389,
          "149": -0.15947242081165314,
          "150": 1.668901801109314,
          "151": -1.111952781677246,
          "152": -0.7999721765518188,
          "153": -0.7343741059303284,
          "154": -0.8219099044799805,
          "155": 0.1926160305738449,
          "156": -1.8308130502700806,
          "157": -0.04702478647232056,
          "158": -1.269565224647522,
          "159": -1.3851631879806519,
          "160": 0.5198435187339783,
          "161": 1.9801996946334839,
          "162": -0.26407331228256226,
          "163": -2.7498998641967773,
          "164": -0.4379078447818756,
          "165": -0.5929367542266846,
          "166": 1.2822543382644653,
          "167": -0.7586538195610046,
          "168": 0.28280699253082275,
          "169": 1.3141028881072998,
          "170": -0.24789147078990936,
          "171": -0.8949637413024902,
          "172": 3.14648175239563,
          "173": 0.9691860675811768,
          "174": -0.6438729763031006,
          "175": 0.20692621171474457,
          "176": 1.257933497428894,
          "177": 1.3564122915267944,
          "178": -2.3528971672058105,
          "179": 1.2724565267562866,
          "180": -1.1174490451812744,
          "181": -1.9186586141586304,
          "182": 1.9638780355453491,
          "183": -0.904974102973938,
          "184": -0.37061601877212524,
          "185": 1.271730661392212,
          "186": -1.3409589529037476,
          "187": 1.4948961734771729,
          "188": 2.0441019535064697,
          "189": -1.2568504810333252,
          "190": -2.1570050716400146,
          "191": 1.129984974861145,
          "192": -2.2162997722625732,
          "193": -1.361398458480835,
          "194": -1.0216798782348633,
          "195": 5.426716327667236,
          "196": 0.8210751414299011,
          "197": -3.344744920730591,
          "198": 0.43925556540489197,
          "199": -0.5135757923126221,
          "200": 1.8240668773651123,
          "201": -0.05850966274738312,
          "202": 2.318878173828125,
          "203": -0.5392666459083557,
          "204": -1.9517028331756592,
          "205": 1.1797330379486084,
          "206": 2.5484399795532227,
          "207": 0.11826732754707336,
          "208": -0.8207446336746216,
          "209": -0.33441561460494995,
          "210": -0.010256008245050907,
          "211": -0.06975837051868439,
          "212": -0.19836196303367615,
          "213": -0.28767576813697815,
          "214": -0.2693062126636505,
          "215": 1.3331501483917236,
          "216": 0.7680031657218933,
          "217": 1.7272734642028809,
          "218": 3.249176263809204,
          "219": 0.2594866454601288,
          "220": -0.8378599286079407,
          "221": -1.11177396774292,
          "222": 0.5348249077796936,
          "223": -0.5011236071586609,
          "224": -0.6059191823005676,
          "225": -0.3063042461872101,
          "226": 1.190854787826538,
          "227": 2.978632926940918,
          "228": 0.003344510681927204,
          "229": 0.19252784550189972,
          "230": -0.7015489339828491,
          "231": 2.040670394897461,
          "232": -1.8022511005401611,
          "233": 0.2818375527858734,
          "234": 0.3768202066421509,
          "235": -0.6051408648490906,
          "236": 0.9043821096420288,
          "237": 2.892162799835205,
          "238": -0.7503970265388489,
          "239": 0.5702897906303406,
          "240": -1.7953171730041504,
          "241": -0.10003219544887543,
          "242": -0.6197086572647095,
          "243": -0.3032057583332062,
          "244": 0.45280173420906067,
          "245": 0.8609495162963867,
          "246": 0.3520027995109558,
          "247": 0.43530887365341187,
          "248": -0.8510924577713013,
          "249": -1.3942184448242188,
          "250": -1.1106969118118286,
          "251": 1.5987801551818848,
          "252": 1.2025864124298096,
          "253": -1.7898352146148682,
          "254": 0.08031006157398224,
          "255": 0.1114906370639801,
          "256": -0.3826868236064911,
          "257": -0.5512199401855469,
          "258": -1.780319333076477,
          "259": 0.5218507051467896,
          "260": 3.4787943363189697,
          "261": 0.523718535900116,
          "262": -0.6461548805236816,
          "263": -0.46029648184776306,
          "264": 4.055850028991699,
          "265": -0.029045764356851578,
          "266": 0.48678919672966003,
          "267": -1.5060091018676758,
          "268": -1.2026410102844238,
          "269": -0.25268176198005676,
          "270": -2.3195667266845703,
          "271": 0.7498617768287659,
          "272": 3.0392558574676514,
          "273": -1.468682885169983,
          "274": 0.06494523584842682,
          "275": 0.10119824856519699,
          "276": 0.7398703098297119,
          "277": -1.7308778762817383,
          "278": -0.7665504813194275,
          "279": -0.2813810110092163,
          "280": 0.2869386672973633,
          "281": 0.9241870045661926,
          "282": -1.4281810522079468,
          "283": -2.28906512260437,
          "284": 1.0115007162094116,
          "285": -3.4212217330932617,
          "286": 0.21712273359298706,
          "287": 1.8443433046340942,
          "288": 0.80655837059021,
          "289": 1.0166252851486206,
          "290": -2.157175064086914,
          "291": -0.5116065144538879,
          "292": 1.4564006328582764,
          "293": -3.1329705715179443,
          "294": 1.4357352256774902,
          "295": -0.9529571533203125,
          "296": -0.007375033106654882,
          "297": 0.3548961281776428,
          "298": -0.15408669412136078,
          "299": 0.6873882412910461,
          "300": -0.09524261206388474,
          "301": -1.0004178285598755,
          "302": 0.9486154317855835,
          "303": 2.0066070556640625,
          "304": -0.3904106914997101,
          "305": 4.631298542022705,
          "306": 0.42459002137184143,
          "307": -0.7927577495574951,
          "308": 1.9200361967086792,
          "309": -0.4722263514995575,
          "310": 3.2644193172454834,
          "311": 0.8136472702026367,
          "312": 0.45526236295700073,
          "313": 0.3526778817176819,
          "314": 0.9424285888671875,
          "315": -1.2618427276611328,
          "316": -1.1187258958816528,
          "317": -1.0971572399139404,
          "318": 0.15960268676280975,
          "319": 1.2498996257781982,
          "320": 0.44436684250831604,
          "321": -1.9351496696472168,
          "322": 0.39920926094055176,
          "323": -0.06525881588459015,
          "324": -0.3676551580429077,
          "325": -1.1771986484527588,
          "326": 0.3349620997905731,
          "327": -0.507267951965332,
          "328": -2.6005399227142334,
          "329": 0.6270933151245117,
          "330": 1.4228440523147583,
          "331": -0.3843996226787567,
          "332": 1.9629013538360596,
          "333": 0.8945438265800476,
          "334": -1.9173249006271362,
          "335": 0.44499415159225464,
          "336": 3.147157907485962,
          "337": -0.6751474738121033,
          "338": 4.057828426361084,
          "339": -1.875386118888855,
          "340": -2.229780673980713,
          "341": 3.5153534412384033,
          "342": 1.8896799087524414,
          "343": 1.8227474689483643,
          "344": -0.4990355670452118,
          "345": -0.8273342251777649,
          "346": -2.381085157394409,
          "347": -1.3697606325149536,
          "348": -0.015329215675592422,
          "349": 1.233417272567749,
          "350": -0.1898999661207199,
          "351": 3.103348970413208,
          "352": 1.1390914916992188,
          "353": 1.1319643259048462,
          "354": 0.30558374524116516,
          "355": -1.227416753768921,
          "356": 0.10720877349376678,
          "357": 0.8963623642921448,
          "358": 0.5235388278961182,
          "359": -1.3076527118682861,
          "360": 0.35522717237472534,
          "361": 0.430538535118103,
          "362": -0.8504101634025574,
          "363": 2.089381694793701,
          "364": 0.30620110034942627,
          "365": 1.6818219423294067,
          "366": -1.9363220930099487,
          "367": 0.10622424632310867,
          "368": -1.0951147079467773,
          "369": 1.311002254486084,
          "370": 0.022242490202188492,
          "371": -0.7588376998901367,
          "372": -0.7237516641616821,
          "373": 1.0287446975708008,
          "374": -0.781790018081665,
          "375": 1.0684374570846558,
          "376": -0.11661396920681,
          "377": -1.0360475778579712,
          "378": 1.4003723859786987,
          "379": 0.7877593636512756,
          "380": -1.209531545639038,
          "381": 0.3876303434371948,
          "382": -1.070775032043457,
          "383": 2.149272918701172,
          "384": -0.5314119458198547,
          "385": -1.362448811531067,
          "386": 0.3290880620479584,
          "387": -0.28252512216567993,
          "388": 1.9608073234558105,
          "389": 0.6618945002555847,
          "390": -0.33422523736953735,
          "391": -1.79012930393219,
          "392": 0.8309793472290039,
          "393": -0.19112196564674377,
          "394": 1.4252315759658813,
          "395": -0.4192676246166229,
          "396": 1.1074950695037842,
          "397": -0.42634090781211853,
          "398": -5.376792907714844,
          "399": 2.0217647552490234,
          "400": -2.00565505027771,
          "401": -1.1791001558303833,
          "402": 0.9662817120552063,
          "403": 0.5566977262496948,
          "404": -1.16383695602417,
          "405": -0.48755425214767456,
          "406": 1.928347110748291,
          "407": 0.2588750123977661,
          "408": -0.9082788228988647,
          "409": -0.8695902824401855,
          "410": -1.8296427726745605,
          "411": 0.8045617938041687,
          "412": -0.42325320839881897,
          "413": 0.4041757881641388,
          "414": 1.4205753803253174,
          "415": 1.6933650970458984,
          "416": 1.4474016427993774,
          "417": -0.9031076431274414,
          "418": 1.2767260074615479,
          "419": 1.5715878009796143,
          "420": -0.6005219221115112,
          "421": -1.0644594430923462,
          "422": 1.31184983253479,
          "423": -0.03690634295344353,
          "424": -2.9841058254241943,
          "425": 0.6320664882659912,
          "426": -1.1178672313690186,
          "427": -0.45855942368507385,
          "428": -1.3158107995986938,
          "429": 1.0659738779067993,
          "430": -0.45546311140060425,
          "431": 2.6239407062530518,
          "432": -0.8732748627662659,
          "433": -2.8493261337280273,
          "434": -1.4497684240341187,
          "435": 1.9406328201293945,
          "436": 1.8237438201904297,
          "437": -1.5757390260696411,
          "438": 1.1227554082870483,
          "439": 0.6347195506095886,
          "440": 0.12434258311986923,
          "441": -0.350697785615921,
          "442": -0.471421480178833,
          "443": 0.6103935241699219,
          "444": -1.0644851922988892,
          "445": -2.052973747253418,
          "446": -1.9880071878433228,
          "447": -1.9377628564834595,
          "448": 2.0021650791168213,
          "449": -0.3031359016895294,
          "450": -0.9803456664085388,
          "451": -0.9124535918235779,
          "452": 1.0794203281402588,
          "453": 0.2735709547996521,
          "454": 0.09613491594791412,
          "455": 0.37378254532814026,
          "456": -3.697873115539551,
          "457": 0.4927661418914795,
          "458": -1.5048933029174805,
          "459": 1.4906916618347168,
          "460": -0.06558706611394882,
          "461": -0.6665441393852234,
          "462": -2.008240222930908,
          "463": 0.5595953464508057,
          "464": 0.9701631665229797,
          "465": -0.3841205835342407,
          "466": -0.4656243920326233,
          "467": 0.05897202342748642,
          "468": -3.6837990283966064,
          "469": -1.897292971611023,
          "470": 1.06572425365448,
          "471": -1.3994030952453613,
          "472": 1.1743675470352173,
          "473": 1.2425498962402344,
          "474": 2.2710587978363037,
          "475": -2.006821632385254,
          "476": -1.4114587306976318,
          "477": -0.2797088623046875,
          "478": -1.762499451637268,
          "479": -0.12182330340147018,
          "480": -0.30848437547683716,
          "481": -0.002755299676209688,
          "482": -0.18410849571228027,
          "483": 0.48138412833213806,
          "484": -1.498956561088562,
          "485": 0.39443621039390564,
          "486": 3.8078887462615967,
          "487": -0.22004693746566772,
          "488": -1.189630389213562,
          "489": -1.551430106163025,
          "490": 1.0785222053527832,
          "491": 0.495075523853302,
          "492": 0.43198874592781067,
          "493": 0.7012617588043213,
          "494": 0.10438244044780731,
          "495": 0.7739126682281494,
          "496": -2.7415084838867188,
          "497": -3.3621435165405273,
          "498": -2.6704864501953125,
          "499": -0.15940722823143005,
          "500": -0.9664004445075989,
          "501": 1.133003830909729,
          "502": 2.6056487560272217,
          "503": -0.15196312963962555,
          "504": -0.6181239485740662,
          "505": -0.8565704226493835,
          "506": -2.509678840637207,
          "507": -0.3692241311073303,
          "508": 0.026062332093715668,
          "509": 0.33112210035324097,
          "510": 1.0289021730422974,
          "511": -0.4669322967529297,
          "512": 0.7193984985351562,
          "513": 0.6111569404602051,
          "514": 0.6669933199882507,
          "515": -0.8496180772781372,
          "516": -0.4358033537864685,
          "517": 1.0979971885681152,
          "518": -1.0650328397750854,
          "519": 1.393250584602356,
          "520": -0.011809158138930798,
          "521": -0.7848919034004211,
          "522": -1.0268843173980713,
          "523": -0.15970619022846222,
          "524": -3.2269797325134277,
          "525": 1.4213941097259521,
          "526": 1.78667151927948,
          "527": -1.735641598701477,
          "528": 0.4899935722351074,
          "529": 0.7232348322868347,
          "530": -1.2843576669692993,
          "531": 0.9863591194152832,
          "532": -0.21660900115966797,
          "533": -1.702530026435852,
          "534": 1.3613035678863525,
          "535": 1.763787031173706,
          "536": -0.7166863083839417,
          "537": -3.595618963241577,
          "538": -1.3358051776885986,
          "539": -0.4154888391494751,
          "540": -0.8055262565612793,
          "541": -4.088953018188477,
          "542": 0.6214280724525452,
          "543": -1.3173435926437378,
          "544": -1.9401026964187622,
          "545": 2.071582555770874,
          "546": -0.3007405698299408,
          "547": 0.33871951699256897,
          "548": 0.23294056951999664,
          "549": -3.4544172286987305,
          "550": 0.24113298952579498,
          "551": 1.9083441495895386,
          "552": 1.397560954093933,
          "553": 2.4246420860290527,
          "554": -0.39228904247283936,
          "555": -1.6289081573486328,
          "556": -1.2696200609207153,
          "557": -0.01730167120695114,
          "558": -0.708127498626709,
          "559": 0.6491249799728394,
          "560": 0.025454478338360786,
          "561": -0.18208575248718262,
          "562": -3.943084478378296,
          "563": -0.8791120648384094,
          "564": -0.6450809240341187,
          "565": -1.3342187404632568,
          "566": -0.13533760607242584,
          "567": 0.9950670003890991,
          "568": 1.8816672563552856,
          "569": -0.37798142433166504,
          "570": -0.5772607922554016,
          "571": -0.554145872592926,
          "572": 0.3965282142162323,
          "573": -0.8270460367202759,
          "574": -0.3156321346759796,
          "575": 0.90018230676651,
          "576": -1.4965381622314453,
          "577": 1.0309181213378906,
          "578": 2.2860918045043945,
          "579": -0.34854656457901,
          "580": 0.33464568853378296,
          "581": -1.1951897144317627,
          "582": 0.809335470199585,
          "583": -0.20046845078468323,
          "584": 0.47210389375686646,
          "585": 0.8056830763816833,
          "586": 1.3399748802185059,
          "587": 0.6346572041511536,
          "588": 1.198091983795166,
          "589": 1.2315447330474854,
          "590": -0.7153791785240173,
          "591": -1.0819087028503418,
          "592": -1.7419875860214233,
          "593": -0.3922960162162781,
          "594": 0.1465790718793869,
          "595": 1.6254901885986328,
          "596": 2.25252628326416,
          "597": -1.0011937618255615,
          "598": 1.1690144538879395,
          "599": -0.5719736814498901,
          "600": -0.4067845344543457,
          "601": -2.3650734424591064,
          "602": 0.7183355689048767,
          "603": -0.7672590017318726,
          "604": 2.956397771835327,
          "605": -2.7176578044891357,
          "606": 0.21109247207641602,
          "607": 1.3619722127914429,
          "608": -0.8906182050704956,
          "609": 0.8242649435997009,
          "610": 0.2986166477203369,
          "611": 0.7941367626190186,
          "612": -0.344949871301651,
          "613": -0.6981233954429626,
          "614": 1.4611027240753174,
          "615": 1.8290044069290161,
          "616": -0.07947930693626404,
          "617": -2.0258829593658447,
          "618": 2.0314297676086426,
          "619": 0.8310490250587463
        }
      },
      "inputHidden": {
        "rows": 20,
        "columns": 20,
        "weights": {
          "0": 2.888824224472046,
          "1": -4.135206699371338,
          "2": 3.110491991043091,
          "3": 2.1087372303009033,
          "4": -1.2706656455993652,
          "5": -2.429903745651245,
          "6": 1.23479425907135,
          "7": 3.1228771209716797,
          "8": 0.24702833592891693,
          "9": 3.141652822494507,
          "10": -3.170734405517578,
          "11": -1.0150363445281982,
          "12": 1.014962911605835,
          "13": 1.2534579038619995,
          "14": 0.37774017453193665,
          "15": 0.6448575854301453,
          "16": 1.696791410446167,
          "17": -3.3460912704467773,
          "18": 2.5325775146484375,
          "19": 0.9562811851501465,
          "20": 1.21413254737854,
          "21": -2.5919172763824463,
          "22": -0.6684718728065491,
          "23": 1.0080991983413696,
          "24": 0.6367034316062927,
          "25": 0.5060548186302185,
          "26": 0.48727086186408997,
          "27": -1.6444358825683594,
          "28": -2.760995626449585,
          "29": 0.09580213576555252,
          "30": -1.028195858001709,
          "31": -1.5989892482757568,
          "32": 1.9429489374160767,
          "33": 0.06991087645292282,
          "34": -0.2902091443538666,
          "35": 1.1549644470214844,
          "36": -0.12525492906570435,
          "37": -0.6611176133155823,
          "38": -0.6081491708755493,
          "39": 1.718936800956726,
          "40": -0.868996262550354,
          "41": 0.8052051663398743,
          "42": 0.02860315889120102,
          "43": -1.2287838459014893,
          "44": 0.6611480712890625,
          "45": 1.401001214981079,
          "46": -3.382246971130371,
          "47": 1.0750008821487427,
          "48": 1.0477222204208374,
          "49": 1.3552587032318115,
          "50": -1.1214221715927124,
          "51": 2.0508310794830322,
          "52": 1.597894549369812,
          "53": 2.4589903354644775,
          "54": 2.186941146850586,
          "55": 2.481666326522827,
          "56": 1.2898359298706055,
          "57": -0.8875243067741394,
          "58": -2.3507449626922607,
          "59": 0.8300989270210266,
          "60": 2.9659290313720703,
          "61": -1.9079396724700928,
          "62": 4.686914920806885,
          "63": 2.6051244735717773,
          "64": 0.5567529201507568,
          "65": 0.08289621770381927,
          "66": 0.2778787612915039,
          "67": -0.18367496132850647,
          "68": 1.5091387033462524,
          "69": -0.06443871557712555,
          "70": -1.0334436893463135,
          "71": 1.8752652406692505,
          "72": 2.1073150634765625,
          "73": 0.2955963611602783,
          "74": -1.558162808418274,
          "75": 0.36842381954193115,
          "76": -2.5400424003601074,
          "77": 0.7637383341789246,
          "78": 1.1813883781433105,
          "79": -0.06393039971590042,
          "80": 2.846569061279297,
          "81": 0.9288493394851685,
          "82": -0.4379728436470032,
          "83": -0.6427435874938965,
          "84": -0.7592034935951233,
          "85": 1.3542741537094116,
          "86": -0.6038564443588257,
          "87": 0.9935837984085083,
          "88": -0.8202046155929565,
          "89": -2.4363808631896973,
          "90": -0.2570568323135376,
          "91": 1.7299615144729614,
          "92": -0.7755318284034729,
          "93": -2.4065845012664795,
          "94": -1.7366515398025513,
          "95": 3.1923935413360596,
          "96": -1.3067495822906494,
          "97": -1.9518094062805176,
          "98": 1.7275059223175049,
          "99": 2.5741987228393555,
          "100": 3.926579475402832,
          "101": -1.6469956636428833,
          "102": 0.8650059103965759,
          "103": 1.4609726667404175,
          "104": -4.234508037567139,
          "105": 1.8844131231307983,
          "106": -2.0017311573028564,
          "107": -0.08748457580804825,
          "108": 0.011097889393568039,
          "109": 2.530301332473755,
          "110": -2.152233600616455,
          "111": -1.5290817022323608,
          "112": -2.7605628967285156,
          "113": 1.4221374988555908,
          "114": -0.1709223836660385,
          "115": 1.2089638710021973,
          "116": -5.60966157913208,
          "117": -0.3703533411026001,
          "118": -2.0655715465545654,
          "119": 2.312009334564209,
          "120": -0.6712846755981445,
          "121": -0.7339167594909668,
          "122": 0.31178224086761475,
          "123": -0.08939172327518463,
          "124": -0.00733489403501153,
          "125": 1.0959513187408447,
          "126": 0.6260493993759155,
          "127": 0.5266001224517822,
          "128": -0.29514601826667786,
          "129": -1.841543197631836,
          "130": 0.5132834911346436,
          "131": -1.3818902969360352,
          "132": 0.6532872319221497,
          "133": 0.11511360108852386,
          "134": -0.977705717086792,
          "135": 0.32525399327278137,
          "136": 0.19854974746704102,
          "137": 0.04854792356491089,
          "138": 2.3085062503814697,
          "139": -1.8986934423446655,
          "140": 0.17181095480918884,
          "141": -0.14131011068820953,
          "142": -1.4509717226028442,
          "143": -3.001784563064575,
          "144": 0.45073628425598145,
          "145": -2.9505763053894043,
          "146": 2.7291996479034424,
          "147": -1.5004405975341797,
          "148": 3.7788608074188232,
          "149": 0.04352891817688942,
          "150": 1.2246050834655762,
          "151": -3.9132227897644043,
          "152": -3.6584203243255615,
          "153": -0.3967806100845337,
          "154": -0.36760589480400085,
          "155": 4.23305606842041,
          "156": -1.5966782569885254,
          "157": -2.581789016723633,
          "158": 2.1073503494262695,
          "159": -0.3655897378921509,
          "160": 0.2039136439561844,
          "161": -0.3820295035839081,
          "162": 2.7005615234375,
          "163": 0.7358819842338562,
          "164": 0.04731426760554314,
          "165": 3.4317984580993652,
          "166": 2.7464230060577393,
          "167": 0.15553945302963257,
          "168": 2.600750684738159,
          "169": 0.4924009144306183,
          "170": -3.2381229400634766,
          "171": -3.4448657035827637,
          "172": -1.006990909576416,
          "173": 1.2045272588729858,
          "174": -3.013322591781616,
          "175": -0.39068546891212463,
          "176": -3.108245611190796,
          "177": 0.5735692381858826,
          "178": 0.8104554414749146,
          "179": -4.192351818084717,
          "180": 1.7122799158096313,
          "181": 0.17293089628219604,
          "182": 0.9733914732933044,
          "183": 0.20046466588974,
          "184": -1.2859634160995483,
          "185": 1.5666977167129517,
          "186": -2.53555965423584,
          "187": 0.9811109304428101,
          "188": -1.3593217134475708,
          "189": -1.524375319480896,
          "190": 0.08868292719125748,
          "191": -1.3936009407043457,
          "192": -3.425572633743286,
          "193": 2.2054238319396973,
          "194": -2.480868339538574,
          "195": -0.20631198585033417,
          "196": -3.356661796569824,
          "197": 0.5857312083244324,
          "198": -0.6670976877212524,
          "199": -2.5340404510498047,
          "200": -0.27092254161834717,
          "201": 0.3372393846511841,
          "202": -0.32390353083610535,
          "203": -1.0640349388122559,
          "204": 0.7796109318733215,
          "205": -0.1632636934518814,
          "206": -0.6152893304824829,
          "207": -1.0782829523086548,
          "208": -0.259575217962265,
          "209": 0.35459908843040466,
          "210": 0.23681271076202393,
          "211": -0.6059853434562683,
          "212": 1.1326115131378174,
          "213": -0.008153741247951984,
          "214": -0.10294902324676514,
          "215": -0.541359007358551,
          "216": 0.3229340612888336,
          "217": 0.5833538770675659,
          "218": -0.38545021414756775,
          "219": -0.511985719203949,
          "220": -1.700951099395752,
          "221": -0.5824224352836609,
          "222": -0.8679511547088623,
          "223": 1.0775413513183594,
          "224": -0.6221863627433777,
          "225": 1.2471997737884521,
          "226": -2.5209858417510986,
          "227": -0.4820321202278137,
          "228": -1.9506100416183472,
          "229": 0.6095560193061829,
          "230": -0.8127040266990662,
          "231": 3.2597522735595703,
          "232": 0.7339783906936646,
          "233": -3.8575479984283447,
          "234": 0.9665462374687195,
          "235": -1.6012842655181885,
          "236": -1.4962531328201294,
          "237": -0.2057316154241562,
          "238": -0.7211329936981201,
          "239": 3.31424880027771,
          "240": 0.3717583119869232,
          "241": -0.5700709223747253,
          "242": 0.6655371785163879,
          "243": 1.3757838010787964,
          "244": -0.4040699303150177,
          "245": -0.1511894017457962,
          "246": 1.0645548105239868,
          "247": 1.3293479681015015,
          "248": 0.0897379070520401,
          "249": 0.72959303855896,
          "250": -1.7837015390396118,
          "251": 0.29411473870277405,
          "252": -0.31939518451690674,
          "253": -0.4911244213581085,
          "254": 0.9040738940238953,
          "255": 0.07717815041542053,
          "256": -0.48800820112228394,
          "257": -0.21655388176441193,
          "258": 0.4774222671985626,
          "259": 0.031947989016771317,
          "260": -3.9457995891571045,
          "261": 3.119210720062256,
          "262": -0.6164875030517578,
          "263": 0.3363378643989563,
          "264": 2.679586410522461,
          "265": -0.794763445854187,
          "266": -1.4584091901779175,
          "267": 1.8901265859603882,
          "268": 3.115175247192383,
          "269": -1.155805230140686,
          "270": -0.8070523142814636,
          "271": 3.7241427898406982,
          "272": 3.959524631500244,
          "273": -0.14431573450565338,
          "274": -0.0018378749955445528,
          "275": 1.1216853857040405,
          "276": 3.581920862197876,
          "277": 0.5540398359298706,
          "278": 1.549673080444336,
          "279": 0.26391780376434326,
          "280": 1.1512120962142944,
          "281": 0.49637356400489807,
          "282": -0.4866502583026886,
          "283": -2.13004469871521,
          "284": 0.8250207901000977,
          "285": -0.8617092967033386,
          "286": -1.271005392074585,
          "287": -0.7230120897293091,
          "288": 0.29409030079841614,
          "289": -0.5889965891838074,
          "290": 1.5870164632797241,
          "291": -0.5753995180130005,
          "292": -0.7167398929595947,
          "293": 0.46465253829956055,
          "294": 0.26807743310928345,
          "295": -0.5191667675971985,
          "296": 3.4425771236419678,
          "297": 0.3013151288032532,
          "298": -0.925118088722229,
          "299": 0.4110536277294159,
          "300": -1.9232285022735596,
          "301": 0.6708590984344482,
          "302": -1.438294768333435,
          "303": 0.6046926379203796,
          "304": 0.8287993669509888,
          "305": 2.5811915397644043,
          "306": 0.06383232772350311,
          "307": -1.521751880645752,
          "308": 2.355952024459839,
          "309": -0.8928999900817871,
          "310": 5.169246673583984,
          "311": 0.6548618674278259,
          "312": 2.415806293487549,
          "313": -0.593312680721283,
          "314": -3.006824493408203,
          "315": -2.178464889526367,
          "316": -2.0094971656799316,
          "317": 1.8789699077606201,
          "318": 0.8543623089790344,
          "319": 3.017489433288574,
          "320": 1.835984706878662,
          "321": -0.36012929677963257,
          "322": 1.1006909608840942,
          "323": 0.8171753883361816,
          "324": 1.0484888553619385,
          "325": 0.5369551181793213,
          "326": -0.15357963740825653,
          "327": 1.0790144205093384,
          "328": 1.108056664466858,
          "329": 0.5566742420196533,
          "330": -2.567380666732788,
          "331": -1.622918963432312,
          "332": -1.4607034921646118,
          "333": -0.7622244954109192,
          "334": 0.8721706867218018,
          "335": 1.6091982126235962,
          "336": -0.3754081428050995,
          "337": -1.9937397241592407,
          "338": 0.39622971415519714,
          "339": 0.5382310152053833,
          "340": 1.5843459367752075,
          "341": -1.157548427581787,
          "342": 1.017524003982544,
          "343": -1.9792968034744263,
          "344": -0.06014678254723549,
          "345": -4.4528656005859375,
          "346": -1.9733550548553467,
          "347": -0.7199361324310303,
          "348": -1.056360125541687,
          "349": 1.804915189743042,
          "350": 0.4094344675540924,
          "351": 0.17703384160995483,
          "352": -1.3193556070327759,
          "353": -0.21952445805072784,
          "354": 1.610276460647583,
          "355": 2.055452346801758,
          "356": 2.8062853813171387,
          "357": 0.8493884801864624,
          "358": -1.4889795780181885,
          "359": 0.7337619066238403,
          "360": 1.3556487560272217,
          "361": -4.278894424438477,
          "362": 1.895878791809082,
          "363": 1.695022702217102,
          "364": 0.20555418729782104,
          "365": -2.2566640377044678,
          "366": 2.0125503540039062,
          "367": 3.1250195503234863,
          "368": 3.408989429473877,
          "369": 0.561701774597168,
          "370": 0.7889344692230225,
          "371": -3.113124370574951,
          "372": -4.583250999450684,
          "373": 2.3682992458343506,
          "374": -1.2850819826126099,
          "375": -1.5098384618759155,
          "376": 1.3370394706726074,
          "377": -4.238149166107178,
          "378": 5.290933609008789,
          "379": 1.7625263929367065,
          "380": -1.9458236694335938,
          "381": -0.24800673127174377,
          "382": -2.2340450286865234,
          "383": 0.5274291634559631,
          "384": 2.528665781021118,
          "385": 0.2741645276546478,
          "386": 1.7962545156478882,
          "387": 0.41040536761283875,
          "388": -0.47835206985473633,
          "389": 0.5235882997512817,
          "390": -0.4464332163333893,
          "391": -1.8393359184265137,
          "392": -2.149261951446533,
          "393": -0.9128026366233826,
          "394": -2.0869600772857666,
          "395": -3.0224268436431885,
          "396": -0.17694951593875885,
          "397": 0.00034601771039888263,
          "398": 2.6441218852996826,
          "399": -0.6183852553367615
        }
      },
      "inputBias": {
        "rows": 20,
        "columns": 1,
        "weights": {
          "0": 0.3324376046657562,
          "1": -1.1419845819473267,
          "2": 0.5713085532188416,
          "3": -0.8370317816734314,
          "4": 2.8732223510742188,
          "5": -0.2647475004196167,
          "6": 0.4524703025817871,
          "7": -2.181746482849121,
          "8": -0.08947497606277466,
          "9": -0.6176976561546326,
          "10": 0.32379835844039917,
          "11": 0.7965299487113953,
          "12": -0.6383427977561951,
          "13": -0.6350088119506836,
          "14": -0.4672139585018158,
          "15": -0.4512903690338135,
          "16": 0.21322767436504364,
          "17": 0.29232239723205566,
          "18": -0.14318859577178955,
          "19": 0.2624945640563965
        }
      },
      "forgetMatrix": {
        "rows": 20,
        "columns": 31,
        "weights": {
          "0": 0.35577598214149475,
          "1": 0.06594443321228027,
          "2": 2.305720090866089,
          "3": 0.7826166749000549,
          "4": 0.1749303936958313,
          "5": 1.8052937984466553,
          "6": -1.5341867208480835,
          "7": -0.11852999776601791,
          "8": 2.0312371253967285,
          "9": 2.1422007083892822,
          "10": 1.5912843942642212,
          "11": -2.294917106628418,
          "12": 1.4142287969589233,
          "13": -0.44361695647239685,
          "14": -0.4805578887462616,
          "15": 0.72076416015625,
          "16": 0.25183120369911194,
          "17": -1.8728079795837402,
          "18": -1.7785122394561768,
          "19": 0.9976377487182617,
          "20": -0.28349006175994873,
          "21": -1.6520695686340332,
          "22": -0.9866124391555786,
          "23": 1.3980185985565186,
          "24": -0.6370793581008911,
          "25": 0.26768770813941956,
          "26": 1.4934817552566528,
          "27": -0.9025675058364868,
          "28": 1.0933477878570557,
          "29": 0.9974783062934875,
          "30": -1.0659972429275513,
          "31": 2.4437623023986816,
          "32": 1.245004415512085,
          "33": 1.0772688388824463,
          "34": -0.5323069095611572,
          "35": -0.487244188785553,
          "36": -0.3250153064727783,
          "37": 0.4415218234062195,
          "38": -1.8673369884490967,
          "39": 0.6571497321128845,
          "40": -0.5970315337181091,
          "41": 0.2685106098651886,
          "42": -1.706016182899475,
          "43": 1.3787997961044312,
          "44": -0.3351978659629822,
          "45": -0.22700831294059753,
          "46": -2.0231831073760986,
          "47": -0.04202694818377495,
          "48": -1.7556939125061035,
          "49": -0.28731027245521545,
          "50": 1.3923381567001343,
          "51": -0.6748830080032349,
          "52": -0.5592624545097351,
          "53": -0.941478967666626,
          "54": 1.9134777784347534,
          "55": 0.12572452425956726,
          "56": -0.8042510151863098,
          "57": 2.3411052227020264,
          "58": -2.5875020027160645,
          "59": 2.0808138847351074,
          "60": -0.9995864629745483,
          "61": -0.9743305444717407,
          "62": -0.5911497473716736,
          "63": 2.0423331260681152,
          "64": 0.4548846483230591,
          "65": -1.1458271741867065,
          "66": 0.5562153458595276,
          "67": -1.6262084245681763,
          "68": 0.4845952093601227,
          "69": 0.03608478233218193,
          "70": -0.49475303292274475,
          "71": 0.11414196342229843,
          "72": -1.2491669654846191,
          "73": 1.7171070575714111,
          "74": -1.9747722148895264,
          "75": -0.033243052661418915,
          "76": -0.5024186372756958,
          "77": 2.070694923400879,
          "78": -1.8204677104949951,
          "79": -0.7564105987548828,
          "80": 3.4471213817596436,
          "81": -0.5651340484619141,
          "82": -0.9163081645965576,
          "83": -0.04103488102555275,
          "84": 0.02778618596494198,
          "85": 1.6765581369400024,
          "86": -0.4499034285545349,
          "87": 2.359649896621704,
          "88": 1.1119369268417358,
          "89": -0.09705349057912827,
          "90": -3.1923775672912598,
          "91": 0.44098493456840515,
          "92": -0.14172877371311188,
          "93": 0.43626219034194946,
          "94": 3.7690560817718506,
          "95": -0.6249383091926575,
          "96": -1.2058924436569214,
          "97": -0.6527369022369385,
          "98": 2.4936273097991943,
          "99": -1.6850528717041016,
          "100": 0.8350968956947327,
          "101": 0.532548189163208,
          "102": -0.9076189994812012,
          "103": 1.4474728107452393,
          "104": -1.4541418552398682,
          "105": -3.5904712677001953,
          "106": 0.563156008720398,
          "107": -0.6339573264122009,
          "108": 0.6670780777931213,
          "109": -2.466416358947754,
          "110": 0.4002244174480438,
          "111": -1.2753517627716064,
          "112": -1.3626569509506226,
          "113": 3.11673641204834,
          "114": 2.7710728645324707,
          "115": -0.025562673807144165,
          "116": -1.8547264337539673,
          "117": -1.3747538328170776,
          "118": 1.1561607122421265,
          "119": 1.1209006309509277,
          "120": -0.6542446613311768,
          "121": -2.3957250118255615,
          "122": 1.4549216032028198,
          "123": 1.370779037475586,
          "124": 1.1766647100448608,
          "125": 0.0635654479265213,
          "126": 2.76814603805542,
          "127": 1.81370210647583,
          "128": -0.5459322929382324,
          "129": -1.7956974506378174,
          "130": -0.8101744055747986,
          "131": -1.466762661933899,
          "132": 2.089137077331543,
          "133": 0.9522217512130737,
          "134": 1.6452515125274658,
          "135": -0.9555054306983948,
          "136": 2.152712345123291,
          "137": 0.7328075170516968,
          "138": -2.7809839248657227,
          "139": -1.0040096044540405,
          "140": 0.5649181008338928,
          "141": -1.953974962234497,
          "142": -2.4697694778442383,
          "143": 1.541948676109314,
          "144": -1.0673047304153442,
          "145": -1.5890462398529053,
          "146": -0.14189164340496063,
          "147": 1.3519904613494873,
          "148": 0.8937024474143982,
          "149": -2.0224688053131104,
          "150": 0.5702534914016724,
          "151": -1.3549691438674927,
          "152": 1.3489487171173096,
          "153": -1.8381606340408325,
          "154": -1.6383206844329834,
          "155": -1.3060863018035889,
          "156": -0.46197372674942017,
          "157": -1.271274447441101,
          "158": 0.42655155062675476,
          "159": 1.986424207687378,
          "160": -0.2107323408126831,
          "161": 0.06343094259500504,
          "162": 0.1376541703939438,
          "163": -0.037855830043554306,
          "164": 0.09531443566083908,
          "165": -1.7559276819229126,
          "166": 1.6358397006988525,
          "167": -0.4953693449497223,
          "168": 1.8747669458389282,
          "169": -0.28739702701568604,
          "170": 0.3604281544685364,
          "171": -1.5332884788513184,
          "172": -1.6696243286132812,
          "173": 1.4918913841247559,
          "174": 1.1823041439056396,
          "175": -1.605649709701538,
          "176": 0.7070140242576599,
          "177": -3.9981539249420166,
          "178": 2.2925000190734863,
          "179": 0.0909804180264473,
          "180": 0.6485027074813843,
          "181": 0.667079746723175,
          "182": -0.6820623874664307,
          "183": -1.228574514389038,
          "184": 0.002585242735221982,
          "185": -0.2678773105144501,
          "186": -2.5896756649017334,
          "187": -0.03564668819308281,
          "188": -0.8926126956939697,
          "189": 0.9374333620071411,
          "190": 1.074017882347107,
          "191": 0.7166694402694702,
          "192": 0.4757874011993408,
          "193": -0.10694536566734314,
          "194": -1.9989213943481445,
          "195": 0.03475148230791092,
          "196": -1.535008430480957,
          "197": -0.6569709777832031,
          "198": -1.2249475717544556,
          "199": 0.5688146948814392,
          "200": 1.2646362781524658,
          "201": 0.6709004640579224,
          "202": -0.9762741923332214,
          "203": 0.0058237481862306595,
          "204": 1.1405695676803589,
          "205": 0.05448652803897858,
          "206": -0.5371515154838562,
          "207": 1.2101644277572632,
          "208": -0.9282728433609009,
          "209": -0.6152106523513794,
          "210": -2.188944101333618,
          "211": 0.9814022779464722,
          "212": 0.16907116770744324,
          "213": 0.3828906714916229,
          "214": -0.44789546728134155,
          "215": -0.25078266859054565,
          "216": 0.5663607716560364,
          "217": -2.0391781330108643,
          "218": 0.3646032214164734,
          "219": -0.2598522901535034,
          "220": 1.9440315961837769,
          "221": 0.3827444911003113,
          "222": 0.5868624448776245,
          "223": 0.4446379244327545,
          "224": 1.8085181713104248,
          "225": 0.4164142906665802,
          "226": -0.7286882400512695,
          "227": 0.7076731324195862,
          "228": 0.8965384364128113,
          "229": -1.364830732345581,
          "230": 2.464460611343384,
          "231": 1.1204534769058228,
          "232": 1.4467532634735107,
          "233": -0.7053720355033875,
          "234": -0.7728056907653809,
          "235": -0.18335726857185364,
          "236": -2.0254955291748047,
          "237": -0.5623104572296143,
          "238": -0.7530863285064697,
          "239": 0.3100033402442932,
          "240": -1.095494031906128,
          "241": 0.1439691185951233,
          "242": 0.20067696273326874,
          "243": -0.45966988801956177,
          "244": -0.5117672681808472,
          "245": -3.2163188457489014,
          "246": 0.7358448505401611,
          "247": 2.532975435256958,
          "248": 1.3772236108779907,
          "249": -2.247983455657959,
          "250": 1.219437599182129,
          "251": -0.29641351103782654,
          "252": 0.23407714068889618,
          "253": 3.0821752548217773,
          "254": -2.0131313800811768,
          "255": -0.08279190212488174,
          "256": 2.8370096683502197,
          "257": 1.9175318479537964,
          "258": 2.2116105556488037,
          "259": -3.694395065307617,
          "260": 0.7136743068695068,
          "261": -1.3421627283096313,
          "262": -0.8334598541259766,
          "263": -1.2351043224334717,
          "264": 1.4631315469741821,
          "265": -0.1608402580022812,
          "266": -1.6692187786102295,
          "267": 0.9667065143585205,
          "268": 1.0475265979766846,
          "269": -1.600091814994812,
          "270": 0.10623215138912201,
          "271": -1.0178015232086182,
          "272": -0.5419634580612183,
          "273": -0.5561934113502502,
          "274": 0.3987233340740204,
          "275": 0.013553040102124214,
          "276": 0.5727005004882812,
          "277": 0.036716703325510025,
          "278": -0.33571967482566833,
          "279": -3.7819344997406006,
          "280": -1.2074501514434814,
          "281": -0.16715863347053528,
          "282": -1.2018177509307861,
          "283": 0.10208596289157867,
          "284": -0.8595027923583984,
          "285": 0.7678621411323547,
          "286": -0.31700003147125244,
          "287": -1.6768114566802979,
          "288": -0.3293641209602356,
          "289": -3.003070831298828,
          "290": -0.5163657665252686,
          "291": -1.653128743171692,
          "292": -1.033078670501709,
          "293": 2.5080690383911133,
          "294": -0.2523205280303955,
          "295": -1.5291261672973633,
          "296": 0.9763925671577454,
          "297": 2.7481601238250732,
          "298": -0.19862598180770874,
          "299": 0.10745709389448166,
          "300": 0.7592813372612,
          "301": -0.39266568422317505,
          "302": 1.7416815757751465,
          "303": 1.0105844736099243,
          "304": 0.9785968661308289,
          "305": -0.4744454026222229,
          "306": 0.5054041743278503,
          "307": -1.1485568284988403,
          "308": -0.3096179962158203,
          "309": 0.6778188943862915,
          "310": 0.11829385161399841,
          "311": 2.2010345458984375,
          "312": -0.6214657425880432,
          "313": 0.16092762351036072,
          "314": -0.05735490843653679,
          "315": 0.4211430251598358,
          "316": -1.8213566541671753,
          "317": -0.3722758889198303,
          "318": 0.843946099281311,
          "319": 1.0795289278030396,
          "320": 1.3282334804534912,
          "321": -1.612391710281372,
          "322": 1.4521329402923584,
          "323": -1.5728510618209839,
          "324": -0.4731036126613617,
          "325": -2.28509783744812,
          "326": 1.3795279264450073,
          "327": -0.4723721146583557,
          "328": -1.8916163444519043,
          "329": 0.21752014756202698,
          "330": 0.4101749062538147,
          "331": 0.8786962628364563,
          "332": -1.1575250625610352,
          "333": -1.2102382183074951,
          "334": -0.029248856008052826,
          "335": -1.4029425382614136,
          "336": -0.14260287582874298,
          "337": 1.0618582963943481,
          "338": 1.1423051357269287,
          "339": -0.9173842668533325,
          "340": -0.02816159650683403,
          "341": 1.4847208261489868,
          "342": 2.0306529998779297,
          "343": -0.023220108821988106,
          "344": 0.8528072237968445,
          "345": -1.0214120149612427,
          "346": -1.5894709825515747,
          "347": 0.14024250209331512,
          "348": -0.205427885055542,
          "349": 1.419808030128479,
          "350": -1.5776021480560303,
          "351": 2.0046157836914062,
          "352": -0.013228867202997208,
          "353": 2.185384750366211,
          "354": -1.1720324754714966,
          "355": -1.449088454246521,
          "356": -2.0639867782592773,
          "357": 2.1428894996643066,
          "358": 1.0411229133605957,
          "359": -1.5401753187179565,
          "360": 0.27095457911491394,
          "361": 0.47660455107688904,
          "362": -2.321126937866211,
          "363": 2.343249559402466,
          "364": 0.1569325178861618,
          "365": 2.7439329624176025,
          "366": -1.4219353199005127,
          "367": 0.24638792872428894,
          "368": -0.5163167715072632,
          "369": 0.7525113821029663,
          "370": -0.6681431531906128,
          "371": -1.4055333137512207,
          "372": -0.8323163390159607,
          "373": -0.37484320998191833,
          "374": -0.5283679962158203,
          "375": -0.665742814540863,
          "376": 0.03310897573828697,
          "377": 2.1856236457824707,
          "378": -1.975589632987976,
          "379": 0.5169296860694885,
          "380": 1.5309364795684814,
          "381": -1.628095269203186,
          "382": -0.49554726481437683,
          "383": -2.7714755535125732,
          "384": -0.7909160852432251,
          "385": 0.046085093170404434,
          "386": 0.14516814053058624,
          "387": 0.9491379857063293,
          "388": 0.27934730052948,
          "389": -0.8418503999710083,
          "390": -0.16174519062042236,
          "391": -0.9434860348701477,
          "392": 0.8478953242301941,
          "393": 1.0634180307388306,
          "394": -1.9024231433868408,
          "395": -1.0719352960586548,
          "396": -0.15788517892360687,
          "397": 0.699606716632843,
          "398": 2.7891921997070312,
          "399": -0.8416777849197388,
          "400": -0.8754173517227173,
          "401": 3.1872189044952393,
          "402": 1.0833300352096558,
          "403": -0.09727354347705841,
          "404": -1.7289575338363647,
          "405": 0.7170023322105408,
          "406": 0.804219126701355,
          "407": -0.8953778743743896,
          "408": 0.1696874499320984,
          "409": -1.822392463684082,
          "410": -0.6389111876487732,
          "411": 2.1289992332458496,
          "412": 0.7629196047782898,
          "413": 0.7930337190628052,
          "414": -1.1444820165634155,
          "415": 1.3982913494110107,
          "416": -0.47071167826652527,
          "417": -2.2262463569641113,
          "418": -1.060685396194458,
          "419": 1.4634768962860107,
          "420": -0.15049339830875397,
          "421": 0.4424923360347748,
          "422": 0.17905357480049133,
          "423": 1.303970217704773,
          "424": -1.021463394165039,
          "425": -0.5479254126548767,
          "426": -1.0473297834396362,
          "427": 1.3190703392028809,
          "428": -1.1246596574783325,
          "429": 1.5287786722183228,
          "430": -0.7186835408210754,
          "431": -0.8971123695373535,
          "432": 1.0244520902633667,
          "433": -0.5584262013435364,
          "434": 0.4254542589187622,
          "435": 1.3159866333007812,
          "436": 0.027368314564228058,
          "437": -0.9944470524787903,
          "438": -1.4275615215301514,
          "439": 1.3871002197265625,
          "440": -0.5135429501533508,
          "441": 0.6677342653274536,
          "442": 1.112475872039795,
          "443": -0.12469043582677841,
          "444": -0.15349435806274414,
          "445": -0.17334578931331635,
          "446": -2.4065678119659424,
          "447": 0.1320241242647171,
          "448": -0.7226603627204895,
          "449": -0.5491248369216919,
          "450": -1.6870540380477905,
          "451": 0.21980449557304382,
          "452": -0.4900738000869751,
          "453": -1.7903081178665161,
          "454": -0.9337937831878662,
          "455": 1.9890859127044678,
          "456": -0.33372992277145386,
          "457": -0.14231131970882416,
          "458": -1.0485702753067017,
          "459": 0.4774189293384552,
          "460": -0.38615667819976807,
          "461": 0.2089095264673233,
          "462": -0.2827880382537842,
          "463": 1.2447365522384644,
          "464": 2.0981180667877197,
          "465": 2.2406115531921387,
          "466": 0.2142391949892044,
          "467": 0.4035954773426056,
          "468": -0.17540095746517181,
          "469": 0.39329004287719727,
          "470": -0.6545220613479614,
          "471": 0.47209227085113525,
          "472": -1.488748550415039,
          "473": -0.5219143033027649,
          "474": -1.436681866645813,
          "475": -0.17182059586048126,
          "476": -0.17585866153240204,
          "477": 3.3388760089874268,
          "478": -0.6685153841972351,
          "479": -2.3357527256011963,
          "480": 0.1767728179693222,
          "481": 1.1192386150360107,
          "482": 0.2919991612434387,
          "483": 0.6301347017288208,
          "484": 2.4426214694976807,
          "485": -0.7395085692405701,
          "486": -2.458498477935791,
          "487": 0.6184635162353516,
          "488": 0.5336288809776306,
          "489": 1.0085827112197876,
          "490": -0.82416832447052,
          "491": 1.3771789073944092,
          "492": 0.30167603492736816,
          "493": 3.1204421520233154,
          "494": -1.8929399251937866,
          "495": -3.7391293048858643,
          "496": 0.2532752454280853,
          "497": 0.2518567144870758,
          "498": 0.7440890669822693,
          "499": 0.4729739725589752,
          "500": -0.07992862164974213,
          "501": -0.7908962965011597,
          "502": -0.4121830463409424,
          "503": -0.15012513101100922,
          "504": 2.085005521774292,
          "505": 0.6488027572631836,
          "506": -0.6606969237327576,
          "507": -1.6699539422988892,
          "508": 0.7628380656242371,
          "509": 0.4510790705680847,
          "510": -0.771452009677887,
          "511": 0.04026150330901146,
          "512": -0.34399038553237915,
          "513": -1.7629097700119019,
          "514": -0.15813732147216797,
          "515": 1.4607816934585571,
          "516": -0.8376374840736389,
          "517": -0.5001922845840454,
          "518": -0.11651849001646042,
          "519": 1.4216548204421997,
          "520": -0.2711656093597412,
          "521": -0.13850900530815125,
          "522": 1.9492051601409912,
          "523": -2.725283145904541,
          "524": 0.6003962755203247,
          "525": -0.705768346786499,
          "526": 0.6073614358901978,
          "527": 1.3326385021209717,
          "528": -2.426046133041382,
          "529": 0.6060461401939392,
          "530": -0.3436717092990875,
          "531": -0.36025068163871765,
          "532": 0.0992104783654213,
          "533": -0.2460910826921463,
          "534": -2.1928350925445557,
          "535": 0.7980379462242126,
          "536": 0.0885055661201477,
          "537": 2.090820074081421,
          "538": -1.114216923713684,
          "539": 2.498577356338501,
          "540": -1.0081700086593628,
          "541": -0.30384233593940735,
          "542": -2.4638400077819824,
          "543": 2.5233919620513916,
          "544": 1.7271251678466797,
          "545": -1.3223292827606201,
          "546": 1.8736968040466309,
          "547": 1.5992542505264282,
          "548": -2.0430240631103516,
          "549": 1.0288832187652588,
          "550": -0.917892336845398,
          "551": 0.07089758664369583,
          "552": -3.328282594680786,
          "553": 0.5982616543769836,
          "554": -0.9559771418571472,
          "555": 1.623660683631897,
          "556": -0.474214106798172,
          "557": -2.1824488639831543,
          "558": 4.638578414916992,
          "559": 0.06317035853862762,
          "560": -0.22969821095466614,
          "561": -2.058567523956299,
          "562": 0.14897558093070984,
          "563": -0.11687000095844269,
          "564": -1.3721879720687866,
          "565": -2.086829900741577,
          "566": 1.15407395362854,
          "567": -1.452820897102356,
          "568": 1.456943392753601,
          "569": -0.9819678068161011,
          "570": 1.117742657661438,
          "571": -0.45486631989479065,
          "572": -1.321191668510437,
          "573": -1.4712377786636353,
          "574": 0.9863591194152832,
          "575": 2.747298240661621,
          "576": -2.607570171356201,
          "577": 1.971605658531189,
          "578": 1.0840147733688354,
          "579": 0.8211584687232971,
          "580": 0.741969883441925,
          "581": 0.22331809997558594,
          "582": 0.03555848449468613,
          "583": -2.7832705974578857,
          "584": 0.27503636479377747,
          "585": 1.1862094402313232,
          "586": 1.5063273906707764,
          "587": -0.9708784818649292,
          "588": -3.289092540740967,
          "589": 1.1537435054779053,
          "590": -0.31727519631385803,
          "591": 1.1269272565841675,
          "592": 0.26422858238220215,
          "593": 2.402198314666748,
          "594": -0.37305694818496704,
          "595": -0.5446592569351196,
          "596": -0.3690516948699951,
          "597": 0.12173223495483398,
          "598": 0.40123361349105835,
          "599": -0.25220000743865967,
          "600": 0.23350472748279572,
          "601": -0.058266956359148026,
          "602": -0.21597672998905182,
          "603": -0.04851403459906578,
          "604": 2.4599509239196777,
          "605": -1.073850154876709,
          "606": 0.38736051321029663,
          "607": -1.7293884754180908,
          "608": 1.5724904537200928,
          "609": -0.08679389953613281,
          "610": -0.9075065851211548,
          "611": 0.6305312514305115,
          "612": -0.5890078544616699,
          "613": -2.39294695854187,
          "614": 1.8043853044509888,
          "615": 2.917172431945801,
          "616": -0.7948554754257202,
          "617": 1.9857856035232544,
          "618": 1.0917820930480957,
          "619": -1.363138198852539
        }
      },
      "forgetHidden": {
        "rows": 20,
        "columns": 20,
        "weights": {
          "0": 1.280279517173767,
          "1": 0.3181004524230957,
          "2": 0.8281873464584351,
          "3": 0.7139019966125488,
          "4": -1.47616708278656,
          "5": 4.316577911376953,
          "6": 0.9984378814697266,
          "7": 0.34620922803878784,
          "8": 0.7721508741378784,
          "9": -0.6198995113372803,
          "10": -0.8373732566833496,
          "11": -3.2928905487060547,
          "12": -1.0709620714187622,
          "13": -0.8440259099006653,
          "14": 2.7769460678100586,
          "15": -0.18221928179264069,
          "16": -2.959962844848633,
          "17": 0.6198477745056152,
          "18": -1.6485575437545776,
          "19": -0.5570265054702759,
          "20": -0.07785800099372864,
          "21": -0.04274811968207359,
          "22": -3.288496494293213,
          "23": 0.39734745025634766,
          "24": -0.8469672799110413,
          "25": -3.3745510578155518,
          "26": 1.1516945362091064,
          "27": -0.29377856850624084,
          "28": -2.5909855365753174,
          "29": 0.5708189606666565,
          "30": -1.473962426185608,
          "31": -2.9293324947357178,
          "32": 1.1485941410064697,
          "33": 0.07194281369447708,
          "34": -0.4130893349647522,
          "35": -0.17696309089660645,
          "36": -0.07549209892749786,
          "37": -0.07608556002378464,
          "38": 0.18529868125915527,
          "39": 0.4761001169681549,
          "40": -4.123655796051025,
          "41": 3.647108554840088,
          "42": -2.2393031120300293,
          "43": -0.8893321752548218,
          "44": 1.2572029829025269,
          "45": 1.9870072603225708,
          "46": -1.0929110050201416,
          "47": 0.13700425624847412,
          "48": -0.45310378074645996,
          "49": -0.11095814406871796,
          "50": 0.3053894639015198,
